digraph Tree {
node [shape=box, fontname="helvetica"] ;
edge [fontname="helvetica"] ;
0 [label="OpenPrice <= 3.615\ngini = 0.498\nsamples = 1183\nvalue = [553, 630]"] ;
1 [label="ClosePrice <= 3.645\ngini = 0.395\nsamples = 547\nvalue = [148, 399]"] ;
0 -> 1 [labeldistance=2.5, labelangle=45, headlabel="True"] ;
2 [label="OpenPrice <= 0.94\ngini = 0.453\nsamples = 222\nvalue = [145, 77]"] ;
1 -> 2 ;
3 [label="ClosePrice <= 0.035\ngini = 0.386\nsamples = 46\nvalue = [12, 34]"] ;
2 -> 3 ;
4 [label="endDay_Mon <= 0.5\ngini = 0.26\nsamples = 13\nvalue = [11, 2]"] ;
3 -> 4 ;
5 [label="gini = 0.5\nsamples = 4\nvalue = [2, 2]"] ;
4 -> 5 ;
6 [label="gini = 0.0\nsamples = 9\nvalue = [9, 0]"] ;
4 -> 6 ;
7 [label="Category_Books <= 0.5\ngini = 0.059\nsamples = 33\nvalue = [1, 32]"] ;
3 -> 7 ;
8 [label="gini = 0.0\nsamples = 32\nvalue = [0, 32]"] ;
7 -> 8 ;
9 [label="gini = 0.0\nsamples = 1\nvalue = [1, 0]"] ;
7 -> 9 ;
10 [label="OpenPrice <= 2.445\ngini = 0.369\nsamples = 176\nvalue = [133, 43]"] ;
2 -> 10 ;
11 [label="ClosePrice <= 2.235\ngini = 0.452\nsamples = 110\nvalue = [72, 38]"] ;
10 -> 11 ;
12 [label="ClosePrice <= 1.24\ngini = 0.285\nsamples = 87\nvalue = [72, 15]"] ;
11 -> 12 ;
13 [label="Duration <= 4.0\ngini = 0.165\nsamples = 55\nvalue = [50, 5]"] ;
12 -> 13 ;
14 [label="endDay_Sun <= 0.5\ngini = 0.5\nsamples = 4\nvalue = [2, 2]"] ;
13 -> 14 ;
15 [label="gini = 0.0\nsamples = 2\nvalue = [0, 2]"] ;
14 -> 15 ;
16 [label="gini = 0.0\nsamples = 2\nvalue = [2, 0]"] ;
14 -> 16 ;
17 [label="sellerRating <= 5245.5\ngini = 0.111\nsamples = 51\nvalue = [48, 3]"] ;
13 -> 17 ;
18 [label="ClosePrice <= 1.03\ngini = 0.044\nsamples = 44\nvalue = [43, 1]"] ;
17 -> 18 ;
19 [label="Category_Music/Movie/Game <= 0.5\ngini = 0.18\nsamples = 10\nvalue = [9, 1]"] ;
18 -> 19 ;
20 [label="gini = 0.0\nsamples = 6\nvalue = [6, 0]"] ;
19 -> 20 ;
21 [label="gini = 0.375\nsamples = 4\nvalue = [3, 1]"] ;
19 -> 21 ;
22 [label="gini = 0.0\nsamples = 34\nvalue = [34, 0]"] ;
18 -> 22 ;
23 [label="Category_Collectibles <= 0.5\ngini = 0.408\nsamples = 7\nvalue = [5, 2]"] ;
17 -> 23 ;
24 [label="endDay_Mon <= 0.5\ngini = 0.278\nsamples = 6\nvalue = [5, 1]"] ;
23 -> 24 ;
25 [label="gini = 0.0\nsamples = 4\nvalue = [4, 0]"] ;
24 -> 25 ;
26 [label="gini = 0.5\nsamples = 2\nvalue = [1, 1]"] ;
24 -> 26 ;
27 [label="gini = 0.0\nsamples = 1\nvalue = [0, 1]"] ;
23 -> 27 ;
28 [label="OpenPrice <= 1.24\ngini = 0.43\nsamples = 32\nvalue = [22, 10]"] ;
12 -> 28 ;
29 [label="gini = 0.0\nsamples = 6\nvalue = [0, 6]"] ;
28 -> 29 ;
30 [label="Category_Home/Garden <= 0.5\ngini = 0.26\nsamples = 26\nvalue = [22, 4]"] ;
28 -> 30 ;
31 [label="OpenPrice <= 1.37\ngini = 0.211\nsamples = 25\nvalue = [22, 3]"] ;
30 -> 31 ;
32 [label="ClosePrice <= 1.475\ngini = 0.5\nsamples = 4\nvalue = [2, 2]"] ;
31 -> 32 ;
33 [label="gini = 0.444\nsamples = 3\nvalue = [2, 1]"] ;
32 -> 33 ;
34 [label="gini = 0.0\nsamples = 1\nvalue = [0, 1]"] ;
32 -> 34 ;
35 [label="Category_Coins/Stamps <= 0.5\ngini = 0.091\nsamples = 21\nvalue = [20, 1]"] ;
31 -> 35 ;
36 [label="gini = 0.0\nsamples = 18\nvalue = [18, 0]"] ;
35 -> 36 ;
37 [label="OpenPrice <= 2.0\ngini = 0.444\nsamples = 3\nvalue = [2, 1]"] ;
35 -> 37 ;
38 [label="gini = 0.5\nsamples = 2\nvalue = [1, 1]"] ;
37 -> 38 ;
39 [label="gini = 0.0\nsamples = 1\nvalue = [1, 0]"] ;
37 -> 39 ;
40 [label="gini = 0.0\nsamples = 1\nvalue = [0, 1]"] ;
30 -> 40 ;
41 [label="gini = 0.0\nsamples = 23\nvalue = [0, 23]"] ;
11 -> 41 ;
42 [label="Category_Books <= 0.5\ngini = 0.14\nsamples = 66\nvalue = [61, 5]"] ;
10 -> 42 ;
43 [label="sellerRating <= 21.0\ngini = 0.091\nsamples = 63\nvalue = [60, 3]"] ;
42 -> 43 ;
44 [label="gini = 0.5\nsamples = 2\nvalue = [1, 1]"] ;
43 -> 44 ;
45 [label="Category_Antique/Art/Craft <= 0.5\ngini = 0.063\nsamples = 61\nvalue = [59, 2]"] ;
43 -> 45 ;
46 [label="endDay_Mon <= 0.5\ngini = 0.041\nsamples = 48\nvalue = [47, 1]"] ;
45 -> 46 ;
47 [label="gini = 0.0\nsamples = 37\nvalue = [37, 0]"] ;
46 -> 47 ;
48 [label="sellerRating <= 731.0\ngini = 0.165\nsamples = 11\nvalue = [10, 1]"] ;
46 -> 48 ;
49 [label="gini = 0.0\nsamples = 5\nvalue = [5, 0]"] ;
48 -> 49 ;
50 [label="sellerRating <= 1214.5\ngini = 0.278\nsamples = 6\nvalue = [5, 1]"] ;
48 -> 50 ;
51 [label="gini = 0.0\nsamples = 1\nvalue = [0, 1]"] ;
50 -> 51 ;
52 [label="gini = 0.0\nsamples = 5\nvalue = [5, 0]"] ;
50 -> 52 ;
53 [label="sellerRating <= 3448.5\ngini = 0.142\nsamples = 13\nvalue = [12, 1]"] ;
45 -> 53 ;
54 [label="gini = 0.0\nsamples = 11\nvalue = [11, 0]"] ;
53 -> 54 ;
55 [label="OpenPrice <= 3.13\ngini = 0.5\nsamples = 2\nvalue = [1, 1]"] ;
53 -> 55 ;
56 [label="gini = 0.0\nsamples = 1\nvalue = [0, 1]"] ;
55 -> 56 ;
57 [label="gini = 0.0\nsamples = 1\nvalue = [1, 0]"] ;
55 -> 57 ;
58 [label="endDay_Sat <= 0.5\ngini = 0.444\nsamples = 3\nvalue = [1, 2]"] ;
42 -> 58 ;
59 [label="gini = 0.0\nsamples = 2\nvalue = [0, 2]"] ;
58 -> 59 ;
60 [label="gini = 0.0\nsamples = 1\nvalue = [1, 0]"] ;
58 -> 60 ;
61 [label="Category_Jewelry <= 0.5\ngini = 0.018\nsamples = 325\nvalue = [3, 322]"] ;
1 -> 61 ;
62 [label="endDay_Thu <= 0.5\ngini = 0.012\nsamples = 320\nvalue = [2, 318]"] ;
61 -> 62 ;
63 [label="gini = 0.0\nsamples = 277\nvalue = [0, 277]"] ;
62 -> 63 ;
64 [label="sellerRating <= 3183.0\ngini = 0.089\nsamples = 43\nvalue = [2, 41]"] ;
62 -> 64 ;
65 [label="gini = 0.0\nsamples = 40\nvalue = [0, 40]"] ;
64 -> 65 ;
66 [label="Currency_EUR <= 0.5\ngini = 0.444\nsamples = 3\nvalue = [2, 1]"] ;
64 -> 66 ;
67 [label="gini = 0.0\nsamples = 1\nvalue = [0, 1]"] ;
66 -> 67 ;
68 [label="gini = 0.0\nsamples = 2\nvalue = [2, 0]"] ;
66 -> 68 ;
69 [label="ClosePrice <= 15.07\ngini = 0.32\nsamples = 5\nvalue = [1, 4]"] ;
61 -> 69 ;
70 [label="gini = 0.0\nsamples = 4\nvalue = [0, 4]"] ;
69 -> 70 ;
71 [label="gini = 0.0\nsamples = 1\nvalue = [1, 0]"] ;
69 -> 71 ;
72 [label="ClosePrice <= 10.0\ngini = 0.463\nsamples = 636\nvalue = [405, 231]"] ;
0 -> 72 [labeldistance=2.5, labelangle=-45, headlabel="False"] ;
73 [label="OpenPrice <= 4.905\ngini = 0.25\nsamples = 246\nvalue = [210, 36]"] ;
72 -> 73 ;
74 [label="ClosePrice <= 4.65\ngini = 0.496\nsamples = 44\nvalue = [24, 20]"] ;
73 -> 74 ;
75 [label="endDay_Tue <= 0.5\ngini = 0.245\nsamples = 28\nvalue = [24, 4]"] ;
74 -> 75 ;
76 [label="Category_Pottery/Glass <= 0.5\ngini = 0.198\nsamples = 27\nvalue = [24, 3]"] ;
75 -> 76 ;
77 [label="ClosePrice <= 4.125\ngini = 0.142\nsamples = 26\nvalue = [24, 2]"] ;
76 -> 77 ;
78 [label="gini = 0.0\nsamples = 19\nvalue = [19, 0]"] ;
77 -> 78 ;
79 [label="ClosePrice <= 4.37\ngini = 0.408\nsamples = 7\nvalue = [5, 2]"] ;
77 -> 79 ;
80 [label="gini = 0.0\nsamples = 2\nvalue = [0, 2]"] ;
79 -> 80 ;
81 [label="gini = 0.0\nsamples = 5\nvalue = [5, 0]"] ;
79 -> 81 ;
82 [label="gini = 0.0\nsamples = 1\nvalue = [0, 1]"] ;
76 -> 82 ;
83 [label="gini = 0.0\nsamples = 1\nvalue = [0, 1]"] ;
75 -> 83 ;
84 [label="gini = 0.0\nsamples = 16\nvalue = [0, 16]"] ;
74 -> 84 ;
85 [label="Category_Books <= 0.5\ngini = 0.146\nsamples = 202\nvalue = [186, 16]"] ;
73 -> 85 ;
86 [label="ClosePrice <= 6.82\ngini = 0.131\nsamples = 198\nvalue = [184, 14]"] ;
85 -> 86 ;
87 [label="OpenPrice <= 4.995\ngini = 0.046\nsamples = 85\nvalue = [83, 2]"] ;
86 -> 87 ;
88 [label="ClosePrice <= 5.115\ngini = 0.137\nsamples = 27\nvalue = [25, 2]"] ;
87 -> 88 ;
89 [label="gini = 0.0\nsamples = 25\nvalue = [25, 0]"] ;
88 -> 89 ;
90 [label="gini = 0.0\nsamples = 2\nvalue = [0, 2]"] ;
88 -> 90 ;
91 [label="gini = 0.0\nsamples = 58\nvalue = [58, 0]"] ;
87 -> 91 ;
92 [label="OpenPrice <= 6.745\ngini = 0.19\nsamples = 113\nvalue = [101, 12]"] ;
86 -> 92 ;
93 [label="gini = 0.0\nsamples = 5\nvalue = [0, 5]"] ;
92 -> 93 ;
94 [label="Category_Toys/Hobbies <= 0.5\ngini = 0.121\nsamples = 108\nvalue = [101, 7]"] ;
92 -> 94 ;
95 [label="OpenPrice <= 7.995\ngini = 0.094\nsamples = 101\nvalue = [96, 5]"] ;
94 -> 95 ;
96 [label="ClosePrice <= 8.0\ngini = 0.156\nsamples = 47\nvalue = [43, 4]"] ;
95 -> 96 ;
97 [label="Category_Antique/Art/Craft <= 0.5\ngini = 0.044\nsamples = 44\nvalue = [43, 1]"] ;
96 -> 97 ;
98 [label="gini = 0.0\nsamples = 36\nvalue = [36, 0]"] ;
97 -> 98 ;
99 [label="OpenPrice <= 7.47\ngini = 0.219\nsamples = 8\nvalue = [7, 1]"] ;
97 -> 99 ;
100 [label="gini = 0.0\nsamples = 6\nvalue = [6, 0]"] ;
99 -> 100 ;
101 [label="ClosePrice <= 7.97\ngini = 0.5\nsamples = 2\nvalue = [1, 1]"] ;
99 -> 101 ;
102 [label="gini = 0.0\nsamples = 1\nvalue = [0, 1]"] ;
101 -> 102 ;
103 [label="gini = 0.0\nsamples = 1\nvalue = [1, 0]"] ;
101 -> 103 ;
104 [label="gini = 0.0\nsamples = 3\nvalue = [0, 3]"] ;
96 -> 104 ;
105 [label="Category_Music/Movie/Game <= 0.5\ngini = 0.036\nsamples = 54\nvalue = [53, 1]"] ;
95 -> 105 ;
106 [label="gini = 0.0\nsamples = 41\nvalue = [41, 0]"] ;
105 -> 106 ;
107 [label="endDay_Sat <= 0.5\ngini = 0.142\nsamples = 13\nvalue = [12, 1]"] ;
105 -> 107 ;
108 [label="gini = 0.0\nsamples = 9\nvalue = [9, 0]"] ;
107 -> 108 ;
109 [label="gini = 0.375\nsamples = 4\nvalue = [3, 1]"] ;
107 -> 109 ;
110 [label="OpenPrice <= 9.49\ngini = 0.408\nsamples = 7\nvalue = [5, 2]"] ;
94 -> 110 ;
111 [label="gini = 0.0\nsamples = 5\nvalue = [5, 0]"] ;
110 -> 111 ;
112 [label="gini = 0.0\nsamples = 2\nvalue = [0, 2]"] ;
110 -> 112 ;
113 [label="Currency_EUR <= 0.5\ngini = 0.5\nsamples = 4\nvalue = [2, 2]"] ;
85 -> 113 ;
114 [label="gini = 0.0\nsamples = 2\nvalue = [0, 2]"] ;
113 -> 114 ;
115 [label="gini = 0.0\nsamples = 2\nvalue = [2, 0]"] ;
113 -> 115 ;
116 [label="OpenPrice <= 10.97\ngini = 0.5\nsamples = 390\nvalue = [195, 195]"] ;
72 -> 116 ;
117 [label="Currency_EUR <= 0.5\ngini = 0.307\nsamples = 127\nvalue = [24, 103]"] ;
116 -> 117 ;
118 [label="gini = 0.0\nsamples = 92\nvalue = [0, 92]"] ;
117 -> 118 ;
119 [label="ClosePrice <= 15.03\ngini = 0.431\nsamples = 35\nvalue = [24, 11]"] ;
117 -> 119 ;
120 [label="gini = 0.0\nsamples = 3\nvalue = [0, 3]"] ;
119 -> 120 ;
121 [label="ClosePrice <= 19.065\ngini = 0.375\nsamples = 32\nvalue = [24, 8]"] ;
119 -> 121 ;
122 [label="gini = 0.0\nsamples = 14\nvalue = [14, 0]"] ;
121 -> 122 ;
123 [label="endDay_Fri <= 0.5\ngini = 0.494\nsamples = 18\nvalue = [10, 8]"] ;
121 -> 123 ;
124 [label="ClosePrice <= 21.085\ngini = 0.408\nsamples = 14\nvalue = [10, 4]"] ;
123 -> 124 ;
125 [label="gini = 0.0\nsamples = 2\nvalue = [0, 2]"] ;
124 -> 125 ;
126 [label="Category_Clothing/Accessories <= 0.5\ngini = 0.278\nsamples = 12\nvalue = [10, 2]"] ;
124 -> 126 ;
127 [label="gini = 0.0\nsamples = 8\nvalue = [8, 0]"] ;
126 -> 127 ;
128 [label="OpenPrice <= 6.115\ngini = 0.5\nsamples = 4\nvalue = [2, 2]"] ;
126 -> 128 ;
129 [label="gini = 0.0\nsamples = 1\nvalue = [0, 1]"] ;
128 -> 129 ;
130 [label="endDay_Thu <= 0.5\ngini = 0.444\nsamples = 3\nvalue = [2, 1]"] ;
128 -> 130 ;
131 [label="ClosePrice <= 22.79\ngini = 0.5\nsamples = 2\nvalue = [1, 1]"] ;
130 -> 131 ;
132 [label="gini = 0.0\nsamples = 1\nvalue = [1, 0]"] ;
131 -> 132 ;
133 [label="gini = 0.0\nsamples = 1\nvalue = [0, 1]"] ;
131 -> 133 ;
134 [label="gini = 0.0\nsamples = 1\nvalue = [1, 0]"] ;
130 -> 134 ;
135 [label="gini = 0.0\nsamples = 4\nvalue = [0, 4]"] ;
123 -> 135 ;
136 [label="sellerRating <= 813.0\ngini = 0.455\nsamples = 263\nvalue = [171, 92]"] ;
116 -> 136 ;
137 [label="Category_Automotive <= 0.5\ngini = 0.496\nsamples = 77\nvalue = [35, 42]"] ;
136 -> 137 ;
138 [label="ClosePrice <= 52.97\ngini = 0.465\nsamples = 57\nvalue = [21, 36]"] ;
137 -> 138 ;
139 [label="OpenPrice <= 12.08\ngini = 0.5\nsamples = 37\nvalue = [18, 19]"] ;
138 -> 139 ;
140 [label="gini = 0.0\nsamples = 4\nvalue = [0, 4]"] ;
139 -> 140 ;
141 [label="sellerRating <= 173.0\ngini = 0.496\nsamples = 33\nvalue = [18, 15]"] ;
139 -> 141 ;
142 [label="endDay_Thu <= 0.5\ngini = 0.32\nsamples = 10\nvalue = [8, 2]"] ;
141 -> 142 ;
143 [label="ClosePrice <= 40.52\ngini = 0.198\nsamples = 9\nvalue = [8, 1]"] ;
142 -> 143 ;
144 [label="gini = 0.0\nsamples = 6\nvalue = [6, 0]"] ;
143 -> 144 ;
145 [label="endDay_Tue <= 0.5\ngini = 0.444\nsamples = 3\nvalue = [2, 1]"] ;
143 -> 145 ;
146 [label="gini = 0.0\nsamples = 2\nvalue = [2, 0]"] ;
145 -> 146 ;
147 [label="gini = 0.0\nsamples = 1\nvalue = [0, 1]"] ;
145 -> 147 ;
148 [label="gini = 0.0\nsamples = 1\nvalue = [0, 1]"] ;
142 -> 148 ;
149 [label="ClosePrice <= 25.88\ngini = 0.491\nsamples = 23\nvalue = [10, 13]"] ;
141 -> 149 ;
150 [label="OpenPrice <= 14.97\ngini = 0.49\nsamples = 14\nvalue = [8, 6]"] ;
149 -> 150 ;
151 [label="ClosePrice <= 16.225\ngini = 0.32\nsamples = 5\nvalue = [1, 4]"] ;
150 -> 151 ;
152 [label="ClosePrice <= 14.33\ngini = 0.5\nsamples = 2\nvalue = [1, 1]"] ;
151 -> 152 ;
153 [label="gini = 0.0\nsamples = 1\nvalue = [0, 1]"] ;
152 -> 153 ;
154 [label="gini = 0.0\nsamples = 1\nvalue = [1, 0]"] ;
152 -> 154 ;
155 [label="gini = 0.0\nsamples = 3\nvalue = [0, 3]"] ;
151 -> 155 ;
156 [label="Currency_US <= 0.5\ngini = 0.346\nsamples = 9\nvalue = [7, 2]"] ;
150 -> 156 ;
157 [label="gini = 0.0\nsamples = 1\nvalue = [0, 1]"] ;
156 -> 157 ;
158 [label="ClosePrice <= 23.405\ngini = 0.219\nsamples = 8\nvalue = [7, 1]"] ;
156 -> 158 ;
159 [label="gini = 0.0\nsamples = 6\nvalue = [6, 0]"] ;
158 -> 159 ;
160 [label="ClosePrice <= 24.315\ngini = 0.5\nsamples = 2\nvalue = [1, 1]"] ;
158 -> 160 ;
161 [label="gini = 0.0\nsamples = 1\nvalue = [0, 1]"] ;
160 -> 161 ;
162 [label="gini = 0.0\nsamples = 1\nvalue = [1, 0]"] ;
160 -> 162 ;
163 [label="OpenPrice <= 27.49\ngini = 0.346\nsamples = 9\nvalue = [2, 7]"] ;
149 -> 163 ;
164 [label="gini = 0.0\nsamples = 6\nvalue = [0, 6]"] ;
163 -> 164 ;
165 [label="endDay_Sun <= 0.5\ngini = 0.444\nsamples = 3\nvalue = [2, 1]"] ;
163 -> 165 ;
166 [label="gini = 0.0\nsamples = 1\nvalue = [0, 1]"] ;
165 -> 166 ;
167 [label="gini = 0.0\nsamples = 2\nvalue = [2, 0]"] ;
165 -> 167 ;
168 [label="ClosePrice <= 263.78\ngini = 0.255\nsamples = 20\nvalue = [3, 17]"] ;
138 -> 168 ;
169 [label="endDay_Mon <= 0.5\ngini = 0.111\nsamples = 17\nvalue = [1, 16]"] ;
168 -> 169 ;
170 [label="gini = 0.0\nsamples = 14\nvalue = [0, 14]"] ;
169 -> 170 ;
171 [label="ClosePrice <= 64.805\ngini = 0.444\nsamples = 3\nvalue = [1, 2]"] ;
169 -> 171 ;
172 [label="gini = 0.0\nsamples = 1\nvalue = [0, 1]"] ;
171 -> 172 ;
173 [label="ClosePrice <= 74.335\ngini = 0.5\nsamples = 2\nvalue = [1, 1]"] ;
171 -> 173 ;
174 [label="gini = 0.0\nsamples = 1\nvalue = [1, 0]"] ;
173 -> 174 ;
175 [label="gini = 0.0\nsamples = 1\nvalue = [0, 1]"] ;
173 -> 175 ;
176 [label="Currency_EUR <= 0.5\ngini = 0.444\nsamples = 3\nvalue = [2, 1]"] ;
168 -> 176 ;
177 [label="gini = 0.0\nsamples = 1\nvalue = [0, 1]"] ;
176 -> 177 ;
178 [label="gini = 0.0\nsamples = 2\nvalue = [2, 0]"] ;
176 -> 178 ;
179 [label="sellerRating <= 77.0\ngini = 0.42\nsamples = 20\nvalue = [14, 6]"] ;
137 -> 179 ;
180 [label="gini = 0.0\nsamples = 2\nvalue = [0, 2]"] ;
179 -> 180 ;
181 [label="ClosePrice <= 405.775\ngini = 0.346\nsamples = 18\nvalue = [14, 4]"] ;
179 -> 181 ;
182 [label="sellerRating <= 603.5\ngini = 0.231\nsamples = 15\nvalue = [13, 2]"] ;
181 -> 182 ;
183 [label="gini = 0.0\nsamples = 9\nvalue = [9, 0]"] ;
182 -> 183 ;
184 [label="ClosePrice <= 54.25\ngini = 0.444\nsamples = 6\nvalue = [4, 2]"] ;
182 -> 184 ;
185 [label="gini = 0.0\nsamples = 4\nvalue = [4, 0]"] ;
184 -> 185 ;
186 [label="gini = 0.0\nsamples = 2\nvalue = [0, 2]"] ;
184 -> 186 ;
187 [label="OpenPrice <= 599.5\ngini = 0.444\nsamples = 3\nvalue = [1, 2]"] ;
181 -> 187 ;
188 [label="gini = 0.0\nsamples = 2\nvalue = [0, 2]"] ;
187 -> 188 ;
189 [label="gini = 0.0\nsamples = 1\nvalue = [1, 0]"] ;
187 -> 189 ;
190 [label="sellerRating <= 2107.0\ngini = 0.393\nsamples = 186\nvalue = [136, 50]"] ;
136 -> 190 ;
191 [label="Category_Toys/Hobbies <= 0.5\ngini = 0.208\nsamples = 51\nvalue = [45, 6]"] ;
190 -> 191 ;
192 [label="ClosePrice <= 11.04\ngini = 0.153\nsamples = 48\nvalue = [44, 4]"] ;
191 -> 192 ;
193 [label="gini = 0.0\nsamples = 1\nvalue = [0, 1]"] ;
192 -> 193 ;
194 [label="Category_Pottery/Glass <= 0.5\ngini = 0.12\nsamples = 47\nvalue = [44, 3]"] ;
192 -> 194 ;
195 [label="Category_Health/Beauty <= 0.5\ngini = 0.049\nsamples = 40\nvalue = [39, 1]"] ;
194 -> 195 ;
196 [label="gini = 0.0\nsamples = 37\nvalue = [37, 0]"] ;
195 -> 196 ;
197 [label="endDay_Sun <= 0.5\ngini = 0.444\nsamples = 3\nvalue = [2, 1]"] ;
195 -> 197 ;
198 [label="gini = 0.0\nsamples = 1\nvalue = [0, 1]"] ;
197 -> 198 ;
199 [label="gini = 0.0\nsamples = 2\nvalue = [2, 0]"] ;
197 -> 199 ;
200 [label="ClosePrice <= 90.49\ngini = 0.408\nsamples = 7\nvalue = [5, 2]"] ;
194 -> 200 ;
201 [label="ClosePrice <= 80.49\ngini = 0.444\nsamples = 3\nvalue = [1, 2]"] ;
200 -> 201 ;
202 [label="gini = 0.0\nsamples = 1\nvalue = [1, 0]"] ;
201 -> 202 ;
203 [label="gini = 0.0\nsamples = 2\nvalue = [0, 2]"] ;
201 -> 203 ;
204 [label="gini = 0.0\nsamples = 4\nvalue = [4, 0]"] ;
200 -> 204 ;
205 [label="ClosePrice <= 23.03\ngini = 0.444\nsamples = 3\nvalue = [1, 2]"] ;
191 -> 205 ;
206 [label="gini = 0.0\nsamples = 1\nvalue = [1, 0]"] ;
205 -> 206 ;
207 [label="gini = 0.0\nsamples = 2\nvalue = [0, 2]"] ;
205 -> 207 ;
208 [label="ClosePrice <= 15.225\ngini = 0.439\nsamples = 135\nvalue = [91, 44]"] ;
190 -> 208 ;
209 [label="sellerRating <= 2179.5\ngini = 0.161\nsamples = 34\nvalue = [31, 3]"] ;
208 -> 209 ;
210 [label="OpenPrice <= 11.065\ngini = 0.5\nsamples = 2\nvalue = [1, 1]"] ;
209 -> 210 ;
211 [label="gini = 0.0\nsamples = 1\nvalue = [0, 1]"] ;
210 -> 211 ;
212 [label="gini = 0.0\nsamples = 1\nvalue = [1, 0]"] ;
210 -> 212 ;
213 [label="Category_Toys/Hobbies <= 0.5\ngini = 0.117\nsamples = 32\nvalue = [30, 2]"] ;
209 -> 213 ;
214 [label="sellerRating <= 3499.0\ngini = 0.067\nsamples = 29\nvalue = [28, 1]"] ;
213 -> 214 ;
215 [label="ClosePrice <= 12.675\ngini = 0.245\nsamples = 7\nvalue = [6, 1]"] ;
214 -> 215 ;
216 [label="gini = 0.0\nsamples = 5\nvalue = [5, 0]"] ;
215 -> 216 ;
217 [label="endDay_Sun <= 0.5\ngini = 0.5\nsamples = 2\nvalue = [1, 1]"] ;
215 -> 217 ;
218 [label="gini = 0.0\nsamples = 1\nvalue = [0, 1]"] ;
217 -> 218 ;
219 [label="gini = 0.0\nsamples = 1\nvalue = [1, 0]"] ;
217 -> 219 ;
220 [label="gini = 0.0\nsamples = 22\nvalue = [22, 0]"] ;
214 -> 220 ;
221 [label="OpenPrice <= 12.0\ngini = 0.444\nsamples = 3\nvalue = [2, 1]"] ;
213 -> 221 ;
222 [label="gini = 0.0\nsamples = 1\nvalue = [1, 0]"] ;
221 -> 222 ;
223 [label="ClosePrice <= 14.555\ngini = 0.5\nsamples = 2\nvalue = [1, 1]"] ;
221 -> 223 ;
224 [label="gini = 0.0\nsamples = 1\nvalue = [0, 1]"] ;
223 -> 224 ;
225 [label="gini = 0.0\nsamples = 1\nvalue = [1, 0]"] ;
223 -> 225 ;
226 [label="OpenPrice <= 15.46\ngini = 0.482\nsamples = 101\nvalue = [60, 41]"] ;
208 -> 226 ;
227 [label="Category_SportingGoods <= 0.5\ngini = 0.363\nsamples = 21\nvalue = [5, 16]"] ;
226 -> 227 ;
228 [label="endDay_Mon <= 0.5\ngini = 0.124\nsamples = 15\nvalue = [1, 14]"] ;
227 -> 228 ;
229 [label="gini = 0.0\nsamples = 12\nvalue = [0, 12]"] ;
228 -> 229 ;
230 [label="Currency_US <= 0.5\ngini = 0.444\nsamples = 3\nvalue = [1, 2]"] ;
228 -> 230 ;
231 [label="ClosePrice <= 25.79\ngini = 0.5\nsamples = 2\nvalue = [1, 1]"] ;
230 -> 231 ;
232 [label="gini = 0.0\nsamples = 1\nvalue = [1, 0]"] ;
231 -> 232 ;
233 [label="gini = 0.0\nsamples = 1\nvalue = [0, 1]"] ;
231 -> 233 ;
234 [label="gini = 0.0\nsamples = 1\nvalue = [0, 1]"] ;
230 -> 234 ;
235 [label="ClosePrice <= 21.505\ngini = 0.444\nsamples = 6\nvalue = [4, 2]"] ;
227 -> 235 ;
236 [label="gini = 0.0\nsamples = 1\nvalue = [0, 1]"] ;
235 -> 236 ;
237 [label="endDay_Thu <= 0.5\ngini = 0.32\nsamples = 5\nvalue = [4, 1]"] ;
235 -> 237 ;
238 [label="gini = 0.0\nsamples = 4\nvalue = [4, 0]"] ;
237 -> 238 ;
239 [label="gini = 0.0\nsamples = 1\nvalue = [0, 1]"] ;
237 -> 239 ;
240 [label="ClosePrice <= 39.75\ngini = 0.43\nsamples = 80\nvalue = [55, 25]"] ;
226 -> 240 ;
241 [label="endDay_Mon <= 0.5\ngini = 0.295\nsamples = 50\nvalue = [41, 9]"] ;
240 -> 241 ;
242 [label="sellerRating <= 2968.5\ngini = 0.142\nsamples = 39\nvalue = [36, 3]"] ;
241 -> 242 ;
243 [label="OpenPrice <= 27.495\ngini = 0.375\nsamples = 8\nvalue = [6, 2]"] ;
242 -> 243 ;
244 [label="gini = 0.0\nsamples = 2\nvalue = [0, 2]"] ;
243 -> 244 ;
245 [label="gini = 0.0\nsamples = 6\nvalue = [6, 0]"] ;
243 -> 245 ;
246 [label="endDay_Fri <= 0.5\ngini = 0.062\nsamples = 31\nvalue = [30, 1]"] ;
242 -> 246 ;
247 [label="gini = 0.0\nsamples = 20\nvalue = [20, 0]"] ;
246 -> 247 ;
248 [label="OpenPrice <= 22.0\ngini = 0.165\nsamples = 11\nvalue = [10, 1]"] ;
246 -> 248 ;
249 [label="gini = 0.0\nsamples = 7\nvalue = [7, 0]"] ;
248 -> 249 ;
250 [label="OpenPrice <= 23.975\ngini = 0.375\nsamples = 4\nvalue = [3, 1]"] ;
248 -> 250 ;
251 [label="gini = 0.0\nsamples = 1\nvalue = [0, 1]"] ;
250 -> 251 ;
252 [label="gini = 0.0\nsamples = 3\nvalue = [3, 0]"] ;
250 -> 252 ;
253 [label="OpenPrice <= 26.0\ngini = 0.496\nsamples = 11\nvalue = [5, 6]"] ;
241 -> 253 ;
254 [label="ClosePrice <= 20.225\ngini = 0.375\nsamples = 8\nvalue = [2, 6]"] ;
253 -> 254 ;
255 [label="Category_Computer <= 0.5\ngini = 0.444\nsamples = 3\nvalue = [2, 1]"] ;
254 -> 255 ;
256 [label="ClosePrice <= 16.25\ngini = 0.5\nsamples = 2\nvalue = [1, 1]"] ;
255 -> 256 ;
257 [label="gini = 0.0\nsamples = 1\nvalue = [1, 0]"] ;
256 -> 257 ;
258 [label="gini = 0.0\nsamples = 1\nvalue = [0, 1]"] ;
256 -> 258 ;
259 [label="gini = 0.0\nsamples = 1\nvalue = [1, 0]"] ;
255 -> 259 ;
260 [label="gini = 0.0\nsamples = 5\nvalue = [0, 5]"] ;
254 -> 260 ;
261 [label="gini = 0.0\nsamples = 3\nvalue = [3, 0]"] ;
253 -> 261 ;
262 [label="endDay_Sun <= 0.5\ngini = 0.498\nsamples = 30\nvalue = [14, 16]"] ;
240 -> 262 ;
263 [label="sellerRating <= 2968.0\ngini = 0.455\nsamples = 20\nvalue = [13, 7]"] ;
262 -> 263 ;
264 [label="gini = 0.0\nsamples = 2\nvalue = [0, 2]"] ;
263 -> 264 ;
265 [label="sellerRating <= 16284.0\ngini = 0.401\nsamples = 18\nvalue = [13, 5]"] ;
263 -> 265 ;
266 [label="ClosePrice <= 94.52\ngini = 0.305\nsamples = 16\nvalue = [13, 3]"] ;
265 -> 266 ;
267 [label="gini = 0.0\nsamples = 10\nvalue = [10, 0]"] ;
266 -> 267 ;
268 [label="ClosePrice <= 128.75\ngini = 0.5\nsamples = 6\nvalue = [3, 3]"] ;
266 -> 268 ;
269 [label="ClosePrice <= 110.725\ngini = 0.375\nsamples = 4\nvalue = [1, 3]"] ;
268 -> 269 ;
270 [label="ClosePrice <= 99.52\ngini = 0.5\nsamples = 2\nvalue = [1, 1]"] ;
269 -> 270 ;
271 [label="gini = 0.0\nsamples = 1\nvalue = [0, 1]"] ;
270 -> 271 ;
272 [label="gini = 0.0\nsamples = 1\nvalue = [1, 0]"] ;
270 -> 272 ;
273 [label="gini = 0.0\nsamples = 2\nvalue = [0, 2]"] ;
269 -> 273 ;
274 [label="gini = 0.0\nsamples = 2\nvalue = [2, 0]"] ;
268 -> 274 ;
275 [label="gini = 0.0\nsamples = 2\nvalue = [0, 2]"] ;
265 -> 275 ;
276 [label="ClosePrice <= 50.495\ngini = 0.18\nsamples = 10\nvalue = [1, 9]"] ;
262 -> 276 ;
277 [label="OpenPrice <= 42.49\ngini = 0.444\nsamples = 3\nvalue = [1, 2]"] ;
276 -> 277 ;
278 [label="gini = 0.0\nsamples = 2\nvalue = [0, 2]"] ;
277 -> 278 ;
279 [label="gini = 0.0\nsamples = 1\nvalue = [1, 0]"] ;
277 -> 279 ;
280 [label="gini = 0.0\nsamples = 7\nvalue = [0, 7]"] ;
276 -> 280 ;
}